{"W1": [[-0.083126705736761, 0.006358843124809447, 0.1139086036683003, 0.019788477559071066, 0.05562480409331993], [-0.0324785413343131, -0.030625893550560862, -0.1078572824765072, -0.047014035398231596, -0.19191814110253944], [-0.0031613735988495354, -0.16977678223636739, 0.14725658575613565, 0.19129305280490477, -0.03756196353398336], [-0.05332330169164245, 0.13103065646952558, -0.10693011240764089, 0.02597944486787527, 0.010844186133864151], [0.19226865529345655, -0.30389479876646824, 0.03620187997748424, 0.006182345356403398, 0.05594659194504969], [0.06552571396507116, 0.02303752729211167, -0.019473969479775435, -0.07828833791888842, 0.04317568440564828], [-0.07410167931169517, -0.08062801882856117, 0.02857984228606388, 0.09827135942967885, -0.09025342277636864]], "b1": [[-0.034763888230149656], [0.007600630926208738], [0.017322443499723127], [-0.18402874599856056], [0.23284822506412717], [0.2243402730442921], [0.016685054259559386]], "W2": [[-0.12113079738380719, 0.06373594528134535, -0.07036343570794139, 0.0313250072632253, 0.020537590280302182, -0.1057605510944174, 0.14028948169494768], [-0.005883516234334034, -0.2535321395606205, 0.04345563367624855, -0.12880688587711284, 0.0109490762669361, -0.12229608809517495, -0.02959201307633263], [0.04339710747413825, 0.0883431176183984, -0.08165881111454956, -0.05696028194074021, -0.04663898443197473, -0.06758809910593425, -0.06766546857355193]], "b2": [[0.03835481723271968], [-0.02807437616810636], [0.0381046465095504]]}